svm_type c_svc
kernel_type rbf
gamma 0.125
nr_class 5
total_sv 99
rho -0.36661 -0.931254 -0.5508 -0.706253 -0.166184 -0.29688 -0.335532 0.38343 0.274861 -0.0241249
label 5 2 4 1 3
nr_sv 39 8 33 9 10
SV
0 2 0 0 1:-0.785714 2:-0.8 3:-1 4:-0.714286 5:-0.714286 6:-1 7:-0.5 8:-0.619048 9:-0.6 10:-0.8 11:-1 12:-0.714286 13:-0.904762 14:-0.818182 15:-0.333333 16:-1 17:-1 18:-1 19:-1 20:-1 21:-0.4 22:-1 23:-0.833333 24:-0.142857 
0.03927199562279782 2 0.1631710359436052 0 1:-0.928571 2:-0.866667 3:-1 4:-1 5:-1 6:-1 7:-1 8:-0.714286 9:-0.733333 10:-0.2 11:-0.857143 12:-1 13:-0.904762 14:-1 15:-1 16:-0.714286 17:-1 18:-0.913043 19:-1 20:-1 21:-0.6 22:-0.882353 23:-1 24:-1 
0.7676471609334451 2 0.1290557252708799 0.9650255640732009 1:-0.928571 2:-0.733333 3:-0.5 4:-1 5:-0.714286 6:-1 7:-0.25 8:-0.904762 9:-0.866667 10:-0.6 11:-1 12:-0.428571 13:-0.904762 14:-1 15:-1 16:-1 17:-0.875 18:-0.956522 19:-1 20:-1 21:-0.6 22:-1 23:-0.833333 24:-1 
0 2 0 0 1:-0.785714 2:-0.866667 3:-1 4:-1 5:-1 6:-0.666667 7:-1 8:-0.714286 9:-0.866667 10:-1 11:-1 12:-1 13:-1 14:-1 15:-0.777778 16:-1 17:-1 18:-0.913043 19:-1 20:-1 21:-1 22:-1 23:-1 24:-1 
0.8823773269559299 1.514834159941437 0.3343073962298278 2 1:-0.928571 2:-1 3:-2.64222e-12 4:-0.714286 5:-1 6:-1 7:-0.75 8:-0.904762 9:-1 10:0.4 11:-1 12:-1 13:-1 14:-1 15:-0.777778 16:-1 17:-1 18:-0.695652 19:-0.888889 20:-0.333333 21:-1 22:-1 23:-1 24:-1 
0 2 1.184106345324785 0 1:-0.928571 2:-0.8 3:-1 4:-1 5:-0.714286 6:-1 7:-1 8:-0.428571 9:-0.866667 10:-1 11:-1 12:0.714286 13:-1 14:-0.0909091 15:-1 16:-0.714286 17:-0.875 18:-0.652174 19:-1 20:-0.666667 21:-0.5 22:-0.411765 23:-0.666667 24:-0.714286 
0 2 1.260901098864109 2 1:-0.642857 2:-0.466667 3:-0.5 4:-0.428571 5:-0.428571 6:-0.666667 7:-1 8:-0.52381 9:-1 10:-0.8 11:-0.857143 12:-0.142857 13:-0.714286 14:-0.454545 15:-0.555556 16:-1 17:-1 18:-0.652174 19:-0.777778 20:-0.333333 21:-0.7 22:-0.294118 23:-1 24:-1 
2 2 2 0 1:-1 2:-1 3:-1 4:-1 5:-0.714286 6:-1 7:-1 8:-1 9:-0.866667 10:-1 11:-1 12:-1 13:-1 14:-1 15:-1 16:-0.714286 17:-1 18:-0.956522 19:-1 20:-1 21:-1 22:-1 23:-1 24:-1 
0.2462771668056459 0.1982099619627782 1.436711727240017 0.3047231479609872 1:-0.357143 2:-0.6 3:1 4:-0.428571 5:-0.428571 6:7.29417e-13 7:-0.75 8:-0.52381 9:-0.466667 10:0.6 11:9.22151e-13 12:-0.714286 13:-0.714286 14:-0.454545 15:-1 16:0.142857 17:-0.625 18:-0.73913 19:-0.666667 20:-0.333333 21:-0.5 22:-1 23:-1 24:0.714286 
0 0.340497595783495 0 0 1:-0.928571 2:-0.8 3:-1 4:-1 5:-1 6:-1 7:-1 8:-1 9:-1 10:-1 11:-0.857143 12:-1 13:-0.809524 14:-1 15:-1 16:-1 17:-1 18:-0.913043 19:-1 20:-1 21:-1 22:-1 23:-1 24:-0.428571 
0 2 0 0 1:-1 2:-0.933333 3:-0.5 4:-1 5:-1 6:-1 7:-1 8:-0.809524 9:-0.866667 10:-1 11:-1 12:-0.428571 13:-1 14:-0.818182 15:-0.777778 16:-1 17:-1 18:-0.826087 19:-1 20:-0.666667 21:-0.9 22:-0.882353 23:-0.5 24:-0.714286 
2 2 0 0 1:-1 2:-1 3:-1 4:-1 5:-1 6:-0.666667 7:-1 8:-1 9:-1 10:-1 11:-1 12:-1 13:-1 14:-1 15:-1 16:-1 17:-1 18:-1 19:-1 20:-1 21:-1 22:-1 23:-1 24:-1 
0.9262845396993711 0.04619798191738281 0.4102913458307088 0.3269933088499832 1:1 2:1 3:-1 4:1 5:0.428571 6:1 7:0.25 8:0.904762 9:1 10:1 11:0.857143 12:0.142857 13:0.238095 14:1 15:1 16:0.428571 17:1 18:-0.0434783 19:-0.555556 20:0.333333 21:0.1 22:-0.294118 23:-0.166667 24:-0.428571 
1.947858208216025 0.9289056465695696 0 1.247190848141565 1:-1 2:-0.866667 3:-0.5 4:-1 5:-1 6:-1 7:-1 8:-1 9:-1 10:-1 11:-1 12:-1 13:-1 14:-0.818182 15:-1 16:-1 17:-0.875 18:-1 19:-1 20:-1 21:-1 22:-1 23:-1 24:-1 
0.06791805443597108 2 2 2 1:-0.714286 2:-0.933333 3:-0.5 4:-1 5:-0.428571 6:-1 7:-1 8:-0.904762 9:-0.866667 10:-0.8 11:-1 12:-1 13:-1 14:-1 15:-1 16:-0.714286 17:-1 18:-0.869565 19:-1 20:-1 21:-0.9 22:-1 23:-0.833333 24:-1 
0 2 0 0 1:-0.857143 2:-0.733333 3:-1 4:-0.428571 5:-0.428571 6:-1 7:-0.75 8:-1 9:-0.733333 10:-0.4 11:-0.857143 12:-1 13:-1 14:-0.818182 15:-0.777778 16:-0.714286 17:-1 18:-0.565217 19:-0.888889 20:-1 21:-1 22:-1 23:-1 24:-0.142857 
0.2813640500733703 2 0.3691050844952481 0 1:-0.642857 2:-0.933333 3:-1 4:-0.428571 5:-0.428571 6:-1 7:-0.75 8:-0.52381 9:-0.6 10:-0.8 11:-0.571429 12:-0.714286 13:-1 14:-1 15:-0.777778 16:-0.428571 17:-0.875 18:-0.826087 19:-0.888889 20:-1 21:-0.6 22:-1 23:-0.833333 24:0.714286 
0 2 0.09292997926608354 0 1:-1 2:-0.933333 3:-1 4:-0.714286 5:-1 6:-1 7:-1 8:-1 9:-1 10:-0.8 11:-1 12:-1 13:-1 14:-1 15:-1 16:-1 17:-1 18:-0.826087 19:-1 20:-0.666667 21:-0.9 22:-1 23:-1 24:-1 
0 0.9647506455837885 0.02203032420676894 0 1:-1 2:-1 3:-1 4:-1 5:-1 6:-1 7:-1 8:-1 9:-1 10:-1 11:-1 12:-1 13:-1 14:-1 15:-1 16:-1 17:-1 18:-1 19:-1 20:-1 21:-1 22:-0.882353 23:-1 24:-1 
0.2359261264715674 0 0.8025975567579003 0 1:-0.928571 2:-1 3:-0.5 4:-1 5:-0.428571 6:-1 7:-1 8:-1 9:-0.733333 10:-1 11:-1 12:-1 13:-1 14:-1 15:-1 16:-1 17:-1 18:-0.913043 19:-1 20:-0.333333 21:-0.7 22:-1 23:-1 24:-0.142857 
0 2 0 0 1:-0.928571 2:-0.933333 3:-1 4:-0.714286 5:-0.714286 6:-0.666667 7:-1 8:-0.904762 9:-0.866667 10:-0.8 11:-0.857143 12:-1 13:-1 14:-1 15:-0.777778 16:-1 17:-1 18:-0.869565 19:-1 20:-1 21:-0.8 22:-1 23:-1 24:-1 
1.105102469565808 2 0.7500679389234249 1.683224979354171 1:-0.714286 2:-0.666667 3:-0.5 4:-0.714286 5:-0.142857 6:7.29417e-13 7:-1 8:-0.619048 9:-0.6 10:-0.4 11:-0.714286 12:-1 13:-0.904762 14:-1 15:-0.111111 16:-0.142857 17:-1 18:-0.565217 19:-0.888889 20:-0.666667 21:-0.6 22:-1 23:-0.5 24:-0.714286 
0.8654358882723786 2 1.435306199574671 0 1:-0.928571 2:-0.866667 3:-1 4:-1 5:-0.714286 6:-1 7:-1 8:-0.904762 9:-0.866667 10:-1 11:-0.714286 12:-0.714286 13:-0.809524 14:-0.818182 15:-1 16:-1 17:-1 18:-0.782609 19:-1 20:-0.333333 21:-1 22:-1 23:-1 24:-0.714286 
0 1.371498226711302 1.762018617627279 1.296660138315236 1:-0.714286 2:-0.866667 3:-0.5 4:-1 5:-0.428571 6:-0.666667 7:-0.75 8:-0.904762 9:-0.6 10:-0.2 11:-1 12:-1 13:-0.714286 14:-0.818182 15:-0.777778 16:-1 17:-1 18:-0.478261 19:-0.888889 20:0.333333 21:-1 22:-0.882353 23:-0.833333 24:-0.142857 
0.3191131678525784 2 0 0.5145850571829794 1:-0.928571 2:-0.933333 3:-1 4:-1 5:-1 6:-0.666667 7:-1 8:-1 9:-0.866667 10:-1 11:-1 12:-1 13:-1 14:-1 15:-1 16:-1 17:-1 18:-1 19:-1 20:-0.666667 21:-0.9 22:-1 23:-1 24:-1 
0.3636084065453914 2 0 0 1:-0.785714 2:-0.6 3:-0.5 4:-1 5:-0.142857 6:-0.333333 7:-0.25 8:-1 9:-1 10:-0.4 11:-0.714286 12:-0.714286 13:-1 14:-0.818182 15:-0.555556 16:-0.714286 17:-1 18:-0.695652 19:-1 20:-1 21:-0.8 22:-1 23:-0.833333 24:-0.142857 
0 2 0 0 1:-0.928571 2:-0.866667 3:-1 4:-1 5:-0.714286 6:-1 7:-1 8:-1 9:-1 10:-1 11:-1 12:-0.714286 13:-1 14:-1 15:-1 16:-1 17:-1 18:-0.913043 19:-1 20:-1 21:-1 22:-1 23:-1 24:-1 
0 0.3638332694850345 0 0.9254698149497781 1:-0.714286 2:-0.8 3:0.5 4:-0.428571 5:-0.714286 6:-1 7:-0.75 8:-0.619048 9:-0.733333 10:-0.8 11:-0.714286 12:-1 13:-0.714286 14:-0.636364 15:-0.777778 16:-1 17:-0.875 18:-0.608696 19:-0.777778 20:-0.666667 21:-0.8 22:-0.647059 23:-0.833333 24:0.142857 
0.4543679324205808 0 0 0 1:-1 2:-0.933333 3:-1 4:-1 5:-1 6:-1 7:-0.75 8:-1 9:-1 10:-1 11:-1 12:-1 13:-1 14:-1 15:-1 16:-1 17:-1 18:-0.913043 19:-1 20:-1 21:-0.9 22:-1 23:-0.833333 24:-0.714286 
0 2 0 0 1:-0.928571 2:-0.8 3:-1 4:-1 5:-0.714286 6:-0.666667 7:-0.75 8:-1 9:-0.866667 10:-0.8 11:-1 12:-1 13:-0.904762 14:-0.818182 15:-1 16:-1 17:-1 18:-0.782609 19:-0.777778 20:-1 21:-1 22:-1 23:-1 24:-0.714286 
0.7960909938738376 1.481084228302329 0.7742666550335509 1.061912541924261 1:-0.357143 2:-0.266667 3:-0.5 4:-0.142857 5:-1 6:-1 7:-0.75 8:1 9:-0.6 10:-0.2 11:-0.285714 12:1 13:-0.238095 14:-0.272727 15:-0.777778 16:-0.142857 17:0.125 18:-0.217391 19:-0.777778 20:-0.666667 21:-0.1 22:-0.176471 23:-0.5 24:0.142857 
0 0.5384132292327259 0.6140123346652645 0 1:-0.571429 2:-0.533333 3:-2.64222e-12 4:-1 5:-0.714286 6:-1 7:-1 8:-0.714286 9:-0.333333 10:-0.2 11:-0.857143 12:-1 13:-0.333333 14:-0.636364 15:-0.777778 16:-0.714286 17:-0.375 18:-0.565217 19:-1 20:-0.333333 21:-0.6 22:-1 23:-1 24:0.428571 
0.284980704377008 0 0 0.9619840065159108 1:-0.857143 2:-0.866667 3:0.5 4:-0.714286 5:-0.714286 6:-1 7:-1 8:-1 9:-0.866667 10:-0.4 11:-0.857143 12:-1 13:-1 14:-0.636364 15:-1 16:-1 17:-1 18:-0.782609 19:-1 20:-1 21:-0.8 22:-1 23:-1 24:-0.142857 
0.3841838553369805 2 0.4562097348075723 2 1:-0.714286 2:-0.8 3:-1 4:-0.714286 5:-0.428571 6:7.29417e-13 7:-1 8:-0.809524 9:-0.866667 10:-0.8 11:-0.714286 12:-0.714286 13:-0.809524 14:-0.818182 15:-0.777778 16:-0.714286 17:-0.75 18:-0.869565 19:-0.555556 20:-0.666667 21:-0.8 22:-0.764706 23:-0.833333 24:-0.714286 
0 2 0 0 1:-0.928571 2:-0.933333 3:-1 4:-1 5:-1 6:-1 7:-1 8:-1 9:-1 10:-0.8 11:-1 12:-1 13:-1 14:-1 15:-1 16:-1 17:-1 18:-1 19:-1 20:-0.666667 21:-1 22:-1 23:-0.833333 24:-1 
0.764831220054754 0.2396344957915688 0.2797150612760017 0.8068288183963724 1:-0.214286 2:9.96758e-13 3:1 4:0.142857 5:-0.142857 6:-0.666667 7:-0.25 8:-0.333333 9:-0.6 10:0.2 11:9.22151e-13 12:-0.714286 13:-0.142857 14:-0.0909091 15:-0.333333 16:-0.428571 17:-0.5 18:0.0869565 19:-0.444444 20:-0.666667 21:-0.1 22:-0.0588235 23:1 24:-0.428571 
0.2016399908675306 2 0 0.1388238413707368 1:-0.785714 2:-0.866667 3:-1 4:-1 5:-0.428571 6:-0.666667 7:-1 8:-0.809524 9:-0.866667 10:-0.8 11:-0.714286 12:-1 13:-0.904762 14:-1 15:-1 16:-1 17:-1 18:-0.73913 19:-1 20:-0.666667 21:-0.9 22:-0.176471 23:-1 24:-1 
0 0.08173397384080355 0 0 1:-0.928571 2:-0.933333 3:-1 4:-1 5:-0.714286 6:-1 7:-1 8:-0.809524 9:-1 10:-0.8 11:-0.857143 12:-1 13:-1 14:-0.818182 15:-1 16:-1 17:-1 18:-0.826087 19:-1 20:-1 21:-0.9 22:-0.647059 23:-1 24:-0.428571 
0.1886800911808545 2 1.694327133752973 1.766577932964819 1:-0.785714 2:-0.6 3:-2.64222e-12 4:-0.714286 5:-0.428571 6:-1 7:-0.5 8:-0.142857 9:-1 10:-0.8 11:-0.714286 12:-0.714286 13:-0.809524 14:-0.818182 15:-1 16:-1 17:-1 18:-0.434783 19:-0.666667 20:-1 21:-0.6 22:-0.764706 23:-0.666667 24:-1 
-2 2 2 2 1:-0.928571 2:-0.866667 3:-1 4:-1 5:-0.714286 6:-0.666667 7:1.29896e-12 8:-0.52381 9:-0.866667 10:-0.8 11:-0.142857 12:-1 13:-0.714286 14:-1 15:-0.333333 16:-0.428571 17:-0.5 18:-0.782609 19:-1 20:-0.666667 21:-0.7 22:-1 23:-0.166667 24:-0.428571 
-2 2 2 2 1:-0.785714 2:-0.733333 3:0.5 4:-0.714286 5:-0.714286 6:-0.333333 7:-1 8:-1 9:-1 10:-0.4 11:-1 12:-1 13:-0.904762 14:-1 15:-1 16:-1 17:-1 18:-0.782609 19:-1 20:-1 21:-1 22:-1 23:-1 24:-1 
-2 2 2 2 1:-1 2:-1 3:-1 4:-1 5:-0.428571 6:-0.666667 7:-1 8:-1 9:-0.866667 10:-1 11:-0.857143 12:-1 13:-0.904762 14:-1 15:-1 16:-0.714286 17:-1 18:-0.913043 19:-1 20:-0.333333 21:-0.7 22:-1 23:-1 24:-0.714286 
-2 2 2 2 1:-1 2:-0.933333 3:-1 4:-1 5:-0.714286 6:-1 7:-1 8:-1 9:-0.866667 10:-0.8 11:-1 12:-1 13:-0.904762 14:-1 15:-0.777778 16:-1 17:-1 18:-0.869565 19:-0.888889 20:-1 21:-1 22:-1 23:-1 24:-1 
-1.470826682791422 0.775233820840484 0.6538568746089748 0.7002678289991804 1:0.214286 2:0.866667 3:-0.5 4:1 5:1 6:-0.333333 7:1 8:0.809524 9:-0.0666667 10:0.6 11:1 12:1 13:-0.619048 14:0.0909091 15:-0.555556 16:1 17:0.75 18:0.304348 19:1 20:-0.666667 21:1 22:0.0588235 23:0.666667 24:-0.142857 
-2 2 2 1.836878124262668 1:-1 2:-1 3:-1 4:-1 5:-1 6:-1 7:-1 8:-1 9:-1 10:-1 11:-1 12:-1 13:-1 14:-1 15:-1 16:-1 17:-1 18:-1 19:-1 20:-1 21:-1 22:-1 23:-1 24:-1 
-2 2 2 2 1:-1 2:-0.866667 3:-0.5 4:-1 5:-1 6:-1 7:-1 8:-0.904762 9:-1 10:-0.8 11:-1 12:-0.714286 13:-0.904762 14:-0.818182 15:-1 16:-0.714286 17:-1 18:-0.956522 19:-0.888889 20:-1 21:-0.8 22:-1 23:-1 24:-1 
-1.652132666770404 0.8994049506786712 0.7751773014991421 1.055465033874211 1:0.285714 2:0.333333 3:-0.5 4:0.142857 5:-0.428571 6:7.29417e-13 7:-0.75 8:0.142857 9:0.6 10:-1 11:0.428571 12:0.142857 13:1 14:0.0909091 15:-1 16:0.428571 17:0.125 18:1 19:-0.444444 20:-0.333333 21:0.2 22:1 23:0.166667 24:0.142857 
-2 -0 0 0 1:-0.928571 2:-0.866667 3:-1 4:-1 5:-0.714286 6:-1 7:-0.75 8:-0.619048 9:-1 10:-0.8 11:-1 12:-0.428571 13:-1 14:-1 15:-1 16:-1 17:-1 18:-0.956522 19:-1 20:-1 21:-0.7 22:-1 23:-0.833333 24:-1 
-2 -0 0 0 1:-1 2:-0.6 3:-1 4:-1 5:-0.714286 6:-1 7:-0.75 8:-0.619048 9:-0.866667 10:-0.4 11:-0.857143 12:-0.714286 13:-0.714286 14:-0.818182 15:-0.777778 16:-0.714286 17:-0.875 18:-0.826087 19:-1 20:-1 21:-0.8 22:-0.882353 23:-0.833333 24:-0.714286 
-2 -0.1515272642694108 0 0 1:-0.714286 2:-1 3:-1 4:-1 5:-1 6:-1 7:-1 8:-0.904762 9:-0.6 10:-0.8 11:-1 12:-1 13:-1 14:-1 15:-1 16:-1 17:-0.75 18:-0.956522 19:-1 20:-1 21:-0.7 22:-1 23:-1 24:-0.714286 
-2 -1.356493786419862 0.4903113394234213 2 1:-0.857143 2:-0.8 3:-1 4:-1 5:-0.428571 6:0.333333 7:-1 8:-1 9:-1 10:-0.2 11:-1 12:-1 13:-0.714286 14:-1 15:-1 16:-1 17:-1 18:-0.913043 19:-1 20:-0.666667 21:-0.9 22:-1 23:-1 24:-1 
-2 -0.9001873634062331 2 2 1:-0.642857 2:-0.666667 3:-2.64222e-12 4:-0.714286 5:0.142857 6:-1 7:-1 8:-0.142857 9:-0.6 10:-0.8 11:-0.142857 12:-1 13:-0.714286 14:-0.818182 15:-0.333333 16:-1 17:-0.875 18:-0.565217 19:-0.888889 20:-0.333333 21:-0.2 22:-0.647059 23:-0.833333 24:-0.714286 
-2 -0 0 0 1:-0.857143 2:-0.866667 3:-1 4:-0.714286 5:-1 6:-1 7:-1 8:-0.809524 9:-1 10:-1 11:-0.571429 12:-0.714286 13:-0.904762 14:-0.636364 15:-1 16:-0.428571 17:-1 18:-0.782609 19:-1 20:-1 21:-0.6 22:-1 23:-1 24:-0.714286 
-2 -1.254538559110286 2 0 1:-0.928571 2:-0.933333 3:-1 4:-1 5:-1 6:-1 7:-1 8:-0.809524 9:-1 10:-1 11:-1 12:-1 13:-1 14:-1 15:-1 16:-1 17:-1 18:-0.956522 19:-1 20:-0.333333 21:-0.8 22:-0.882353 23:-1 24:-1 
-2 -0.1030865536109244 0.4499373183152038 2 1:-0.642857 2:-1 3:-0.5 4:-0.428571 5:-1 6:-0.333333 7:-1 8:-0.619048 9:-0.733333 10:-0.8 11:-0.714286 12:-1 13:-0.904762 14:-0.818182 15:-0.555556 16:-0.428571 17:-1 18:-0.869565 19:-1 20:6.38378e-13 21:-1 22:-0.764706 23:-1 24:-1 
-2 -0.9212517527103329 0 0 1:-0.857143 2:-1 3:-1 4:-1 5:-0.714286 6:-1 7:-1 8:-0.904762 9:-1 10:-0.6 11:-0.857143 12:-1 13:-1 14:-0.818182 15:-1 16:-1 17:-1 18:-1 19:-1 20:-1 21:-1 22:-1 23:-1 24:-1 
-0.5603628180679001 -0 0 0 1:-0.857143 2:-0.933333 3:-1 4:-0.428571 5:-1 6:-1 7:-1 8:-0.428571 9:-1 10:-0.6 11:-0.285714 12:-0.714286 13:-1 14:-1 15:-1 16:-0.714286 17:-1 18:-0.782609 19:-1 20:-0.666667 21:-0.9 22:-0.882353 23:-0.833333 24:-1 
-0 -0 0.7695446086843573 1.504231733741055 1:-0.714286 2:-0.533333 3:-1 4:-0.714286 5:-0.714286 6:-0.666667 7:-0.5 8:-0.52381 9:-1 10:-1 11:-0.857143 12:-0.714286 13:-0.809524 14:-0.454545 15:-1 16:-0.428571 17:-0.625 18:-0.565217 19:-0.777778 20:-0.333333 21:-0.6 22:-0.529412 23:-1 24:-1 
-0 -0.1327211265631192 1.284170359130389 1.549736963301445 1:-0.5 2:-0.4 3:-1 4:-0.428571 5:-0.142857 6:-0.666667 7:-0.75 8:-0.333333 9:-0.333333 10:1.99396e-13 11:-0.285714 12:0.142857 13:-0.619048 14:-0.818182 15:-1 16:-0.428571 17:-1 18:-0.26087 19:-0.666667 20:6.38378e-13 21:-0.3 22:-0.764706 23:-0.5 24:-0.714286 
-2 -0.7305591744344982 0.2702896197786133 2 1:-0.785714 2:-0.533333 3:-2.64222e-12 4:-0.714286 5:-1 6:-0.666667 7:-1 8:-0.142857 9:-0.333333 10:-0.8 11:-0.857143 12:-1 13:-0.52381 14:-0.818182 15:-0.333333 16:-0.714286 17:-0.875 18:-0.478261 19:-0.666667 20:-1 21:-0.8 22:-0.647059 23:-0.833333 24:-1 
-2 -0 0 0 1:-0.642857 2:-0.8 3:-1 4:-1 5:-1 6:-1 7:-1 8:-0.809524 9:-1 10:-0.8 11:-0.857143 12:-1 13:-0.904762 14:-0.636364 15:-1 16:-1 17:-0.875 18:-0.73913 19:-1 20:-1 21:-1 22:-0.882353 23:-1 24:-1 
-1.717840813406974 -0.1492486890854115 1.04822679753826 1.18707622959285 1:-0.928571 2:-0.6 3:-0.5 4:-0.714286 5:-0.428571 6:-1 7:1.29896e-12 8:-0.619048 9:-0.866667 10:-0.8 11:-0.714286 12:0.428571 13:-0.714286 14:-0.818182 15:-1 16:-1 17:-0.875 18:-0.826087 19:-0.777778 20:-0.666667 21:-0.6 22:-1 23:-0.833333 24:-1 
-2 -0 1.001612382621242 0 1:-0.785714 2:-0.933333 3:-1 4:-0.714286 5:-0.428571 6:-1 7:-1 8:-1 9:-1 10:-0.6 11:-0.571429 12:-1 13:-1 14:-1 15:-0.777778 16:-0.428571 17:-0.875 18:-0.869565 19:-0.888889 20:-0.666667 21:-0.9 22:-1 23:-1 24:-0.714286 
-0.4671095936929123 -0 0.07822465785997233 0 1:-0.714286 2:-0.466667 3:-1 4:-1 5:-0.714286 6:-1 7:-0.75 8:-0.619048 9:-0.866667 10:-0.4 11:-0.285714 12:-0.714286 13:-0.809524 14:-0.454545 15:-1 16:-0.714286 17:-0.625 18:-0.565217 19:-1 20:-0.333333 21:-0.1 22:-0.764706 23:-1 24:-1 
-2 -1.084735090656067 0 1.158248315475063 1:-0.928571 2:-0.933333 3:-1 4:-1 5:-1 6:-1 7:-1 8:-0.904762 9:-1 10:-0.4 11:-1 12:-1 13:-0.809524 14:-1 15:-1 16:-1 17:-1 18:-0.956522 19:-1 20:-0.666667 21:-1 22:-1 23:-1 24:-1 
-2 -0.7030088691579862 2 0.9824666075494257 1:-0.857143 2:-0.933333 3:-0.5 4:-1 5:-0.714286 6:-1 7:-1 8:-0.619048 9:-0.733333 10:-1 11:-0.714286 12:-0.714286 13:-1 14:-0.818182 15:-1 16:-0.142857 17:-0.75 18:-0.869565 19:-0.555556 20:-1 21:-0.8 22:-1 23:-0.833333 24:-1 
-1.24174490996905 -0 0 0 1:-0.714286 2:-0.666667 3:-1 4:-1 5:-0.428571 6:-0.666667 7:-0.75 8:-0.428571 9:-0.733333 10:-1 11:-0.714286 12:0.428571 13:-0.714286 14:-1 15:-1 16:-1 17:-0.75 18:-0.826087 19:-0.666667 20:-1 21:-0.9 22:-0.882353 23:-0.833333 24:-1 
-2 -0 0 0.4176439912756241 1:-0.642857 2:-0.666667 3:-0.5 4:-0.428571 5:-0.714286 6:-1 7:-0.5 8:-0.619048 9:-0.866667 10:-0.6 11:-0.857143 12:0.428571 13:-0.809524 14:-0.818182 15:-0.777778 16:-1 17:-1 18:-0.695652 19:-1 20:-0.666667 21:-0.8 22:-0.647059 23:-0.666667 24:-0.428571 
-2 -0 0 0 1:-0.928571 2:-0.933333 3:-1 4:-1 5:-1 6:-0.666667 7:-1 8:-0.809524 9:-0.866667 10:-1 11:-1 12:-0.714286 13:-1 14:-1 15:-0.777778 16:-1 17:-1 18:-1 19:-1 20:-0.666667 21:-1 22:-0.882353 23:-1 24:-1 
-0.08253527998537907 -0.1030592332529647 0.1156674796331062 0 1:-0.714286 2:-0.133333 3:-1 4:-1 5:-1 6:-1 7:-1 8:0.333333 9:-0.866667 10:-1 11:-0.428571 12:-0.142857 13:-0.809524 14:-0.636364 15:-0.777778 16:-0.714286 17:-0.875 18:-0.478261 19:-1 20:-1 21:-0.8 22:-0.294118 23:-0.333333 24:-1 
-2 -0 0 0.4473859338930773 1:-1 2:-0.333333 3:-0.5 4:-0.714286 5:-0.428571 6:7.29417e-13 7:-1 8:-0.619048 9:-0.6 10:-0.6 11:-0.857143 12:-1 13:-0.904762 14:-0.818182 15:-0.555556 16:-1 17:-1 18:-0.73913 19:-1 20:-1 21:-0.8 22:-0.882353 23:-0.833333 24:-1 
-2 -0.4076821076579596 0 0 1:-0.857143 2:-0.8 3:-1 4:-1 5:-1 6:-0.666667 7:-0.75 8:-0.52381 9:-1 10:-0.6 11:-0.714286 12:-1 13:-1 14:-1 15:-0.333333 16:-1 17:-0.875 18:-0.956522 19:-1 20:-1 21:-0.9 22:-0.882353 23:-1 24:-0.714286 
-2 -0 0 0 1:-0.928571 2:-0.466667 3:-1 4:-0.428571 5:-0.714286 6:-0.666667 7:-0.75 8:-0.619048 9:-0.866667 10:-0.8 11:-1 12:-1 13:-0.809524 14:-0.818182 15:-0.777778 16:-0.714286 17:-1 18:-0.826087 19:-1 20:-0.666667 21:-0.9 22:-1 23:-0.666667 24:-0.714286 
-2 -0 1.44656154925085 0 1:-0.785714 2:-0.733333 3:-1 4:-1 5:-1 6:-1 7:-0.75 8:-0.333333 9:-0.733333 10:-0.8 11:-0.857143 12:-1 13:-0.809524 14:-0.636364 15:-1 16:-1 17:-0.875 18:-0.913043 19:-1 20:6.38378e-13 21:-0.7 22:-1 23:-1 24:-0.142857 
-2 -2 1.827433555738148 2 1:-0.785714 2:-0.8 3:-0.5 4:-0.714286 5:-0.714286 6:-1 7:-1 8:-0.904762 9:-1 10:-1 11:-0.857143 12:-0.714286 13:-1 14:-1 15:-1 16:-0.714286 17:-1 18:-0.913043 19:-1 20:-1 21:-1 22:-1 23:-0.833333 24:-1 
-2 -0.4982112233361807 0.9772947061531145 2 1:-0.928571 2:-0.866667 3:-0.5 4:-0.428571 5:-0.142857 6:-1 7:-0.75 8:-0.904762 9:-1 10:-0.8 11:-1 12:-1 13:-1 14:-1 15:-1 16:-1 17:-1 18:-0.782609 19:-0.888889 20:-0.666667 21:-0.9 22:-0.882353 23:-1 24:-0.428571 
-2 -0.615556337826452 0 0 1:-0.857143 2:-0.933333 3:-1 4:-1 5:-1 6:-1 7:-0.75 8:-1 9:-0.866667 10:-1 11:-1 12:-0.714286 13:-0.904762 14:-0.818182 15:-1 16:-1 17:-1 18:-0.913043 19:-1 20:-1 21:-0.9 22:-1 23:-1 24:-1 
-2 -0 0.7279306716763941 0 1:-0.714286 2:-0.866667 3:-1 4:-1 5:-0.142857 6:7.29417e-13 7:-0.75 8:-0.238095 9:-0.733333 10:-0.6 11:-0.714286 12:-0.142857 13:-0.904762 14:-1 15:-1 16:-0.428571 17:-1 18:-0.565217 19:-1 20:-0.333333 21:-0.7 22:-0.529412 23:-0.833333 24:-0.428571 
-2 -2 0.06302969972379056 0 1:-1 2:-0.933333 3:-1 4:-1 5:-1 6:-0.666667 7:-0.5 8:-0.904762 9:-0.866667 10:-1 11:-1 12:-1 13:-1 14:-1 15:-1 16:-0.714286 17:-1 18:-1 19:-0.777778 20:-1 21:-0.8 22:-1 23:-1 24:-0.714286 
-2 -0.5627716400214668 0.435587520561373 0.7532102251714601 1:-0.428571 2:-0.533333 3:-1 4:-0.142857 5:0.142857 6:-0.666667 7:1.29896e-12 8:-0.809524 9:-0.6 10:-0.2 11:-0.428571 12:-0.142857 13:-0.333333 14:-1 15:-1 16:-0.142857 17:-1 18:-0.434783 19:-0.555556 20:-1 21:-0.6 22:-0.647059 23:-1 24:-0.142857 
-2 -0.9005025961274938 -1.514044988477628 0.8971110629776086 1:-0.5 2:-0.466667 3:-0.5 4:-0.714286 5:-0.428571 6:-1 7:-0.5 8:-0.619048 9:-0.733333 10:1.99396e-13 11:-1 12:-0.714286 13:-0.904762 14:-1 15:-0.777778 16:-0.714286 17:-0.875 18:-0.73913 19:-0.666667 20:1 21:-0.3 22:-0.764706 23:-1 24:1 
-1.971131295090671 -0.3647536407487736 -1.845758354102798 1.21274187318225 1:-0.571429 2:-0.533333 3:-0.5 4:-1 5:-0.142857 6:-1 7:-0.75 8:0.142857 9:-0.866667 10:-0.6 11:-1 12:0.714286 13:-1 14:-0.818182 15:-0.777778 16:1 17:-0.75 18:-0.652174 19:-1 20:6.38378e-13 21:-0.2 22:-0.764706 23:-0.833333 24:-0.428571 
-2 -0.4164054583545874 -1.62601892350781 2 1:-0.428571 2:-0.733333 3:0.5 4:-1 5:-0.142857 6:-0.666667 7:-0.75 8:-0.619048 9:-0.866667 10:0.2 11:-0.285714 12:-0.714286 13:-0.619048 14:-0.818182 15:-0.555556 16:-0.428571 17:-0.625 18:-0.434783 19:-0.666667 20:0.666667 21:-0.5 22:-0.882353 23:-0.666667 24:-0.142857 
-2 -2 -2 2 1:-0.857143 2:-0.733333 3:1 4:-0.428571 5:-1 6:-1 7:-1 8:-0.904762 9:-1 10:-0.6 11:-0.428571 12:-1 13:-0.619048 14:-0.636364 15:-1 16:-0.714286 17:-1 18:-0.695652 19:-0.777778 20:-0.333333 21:-1 22:-1 23:-1 24:-0.714286 
-2 -2 -2 2 1:-0.857143 2:-1 3:-1 4:-1 5:0.142857 6:-0.666667 7:-0.75 8:-1 9:-1 10:-1 11:-1 12:-0.714286 13:-0.904762 14:-1 15:-1 16:-0.428571 17:-0.875 18:-0.869565 19:-0.777778 20:-1 21:-0.7 22:-0.882353 23:-1 24:-1 
-2 -1.747372480877262 -2 2 1:-0.571429 2:-0.666667 3:-0.5 4:-0.714286 5:-1 6:-1 7:-0.75 8:-0.238095 9:-1 10:-1 11:-0.714286 12:-0.428571 13:-0.904762 14:-1 15:-0.555556 16:-1 17:-0.5 18:-0.652174 19:-0.666667 20:6.38378e-13 21:-0.3 22:-0.647059 23:-0.833333 24:-1 
-2 -2 -2 2 1:-1 2:-0.933333 3:-1 4:-1 5:-0.714286 6:-1 7:-1 8:-0.619048 9:-1 10:-1 11:-0.857143 12:-0.714286 13:-1 14:-0.818182 15:-1 16:-0.714286 17:-0.875 18:-0.956522 19:-0.888889 20:-1 21:-0.9 22:-0.882353 23:-1 24:-1 
-2 -2 -2 2 1:-0.785714 2:-0.8 3:-1 4:-1 5:-0.428571 6:-1 7:-1 8:-0.619048 9:-0.866667 10:-1 11:-0.857143 12:-1 13:-1 14:-0.818182 15:-1 16:-0.714286 17:-1 18:-0.869565 19:-0.666667 20:-0.666667 21:-0.6 22:-1 23:-0.833333 24:-1 
-2 -2 -2 2 1:-0.857143 2:-1 3:-1 4:-1 5:-0.714286 6:-1 7:-1 8:-1 9:-1 10:-1 11:-1 12:-1 13:-0.904762 14:-1 15:-1 16:-0.714286 17:-1 18:-0.913043 19:-1 20:-1 21:-0.8 22:-1 23:-1 24:-1 
-2 -0 -2 -2 1:-0.785714 2:-0.733333 3:-2.64222e-12 4:-0.142857 5:0.142857 6:-1 7:-0.5 8:-0.714286 9:-1 10:-0.4 11:-0.714286 12:-1 13:-0.714286 14:-0.818182 15:-1 16:-0.714286 17:-0.75 18:-0.652174 19:-0.888889 20:0.333333 21:-0.8 22:-0.764706 23:-1 24:-1 
-2 -1.446233788198449 -2 -1.813265299585585 1:-0.857143 2:-1 3:0.5 4:-0.714286 5:-0.714286 6:-1 7:-1 8:-1 9:-1 10:-0.6 11:-0.857143 12:-1 13:-0.619048 14:-0.818182 15:-0.777778 16:-1 17:-1 18:-0.782609 19:-1 20:-0.666667 21:-0.5 22:-1 23:-1 24:-1 
-2 -0.9541907159122101 -2 -0 1:-0.785714 2:-0.8 3:0.5 4:-0.714286 5:-0.428571 6:7.29417e-13 7:-0.5 8:-1 9:-1 10:-0.4 11:-1 12:-1 13:-0.809524 14:-1 15:-1 16:-1 17:-1 18:-0.913043 19:-0.888889 20:-0.666667 21:-0.9 22:-1 23:-1 24:-0.714286 
-2 -2 -2 -2 1:-0.928571 2:-1 3:-1 4:-0.714286 5:-0.714286 6:-0.666667 7:-1 8:-0.904762 9:-1 10:-1 11:-0.714286 12:-1 13:-0.904762 14:-1 15:-1 16:-0.714286 17:-1 18:-0.913043 19:-1 20:-1 21:-0.9 22:-0.764706 23:-1 24:-1 
-2 -1.452946075415571 -2 -1.886703249651611 1:-0.214286 2:-0.866667 3:-1 4:-0.714286 5:-0.428571 6:7.29417e-13 7:-0.5 8:-0.52381 9:-0.6 10:-0.8 11:-0.857143 12:-0.142857 13:-0.52381 14:-0.0909091 15:-1 16:-0.428571 17:-0.75 18:-0.565217 19:-0.666667 20:-1 21:-0.7 22:-0.529412 23:-0.833333 24:-1 
-2 -1.331569922394596 -2 -1.240598487281507 1:-0.5 2:-0.266667 3:-1 4:0.142857 5:-0.428571 6:-1 7:-0.75 8:0.047619 9:-0.6 10:-0.8 11:-0.142857 12:-0.142857 13:-0.714286 14:-0.454545 15:-0.777778 16:0.428571 17:9.89875e-13 18:-0.217391 19:-0.444444 20:-0.666667 21:-0.1 22:-0.294118 23:0.333333 24:-1 
-2 -2 -2 -2 1:-0.857143 2:-0.866667 3:-0.5 4:-1 5:-0.428571 6:-1 7:-1 8:-0.904762 9:-0.733333 10:-0.8 11:-0.857143 12:-1 13:-0.904762 14:-1 15:-0.777778 16:-0.714286 17:-0.875 18:-0.652174 19:-1 20:-0.666667 21:-0.6 22:-0.882353 23:-0.833333 24:-1 
-2 -2 -2 -2 1:-0.928571 2:-0.933333 3:-0.5 4:-1 5:-0.714286 6:-0.666667 7:-0.75 8:-0.904762 9:-1 10:-0.8 11:-1 12:-1 13:-0.904762 14:-0.818182 15:-0.555556 16:-1 17:-1 18:-0.913043 19:-1 20:-0.666667 21:-0.9 22:-1 23:-1 24:-1 
-2 -2 -2 -1.691065609924891 1:-0.928571 2:-0.8 3:0.5 4:-1 5:-1 6:-0.666667 7:-1 8:-1 9:-0.733333 10:-0.2 11:-1 12:-1 13:-0.52381 14:-1 15:-0.777778 16:-1 17:-0.875 18:-0.608696 19:-0.888889 20:-0.666667 21:-1 22:-1 23:-1 24:-0.428571 
-2 -0.4076704852152333 -2 -1.478220289716266 1:-0.142857 2:-0.733333 3:-0.5 4:0.142857 5:-0.428571 6:-0.666667 7:-0.25 8:0.142857 9:-0.466667 10:-0.6 11:-0.857143 12:-0.142857 13:-0.619048 14:-0.636364 15:-0.777778 16:-0.428571 17:-0.625 18:-0.695652 19:-1 20:0.666667 21:-0.5 22:-0.529412 23:1.38312e-12 24:-0.714286 
